-1.011580984838864605e+00 -3.003693653301374500e+00 -2.034405267262830108e+00 2.456694668110236124e-01 -5.845000807450515090e+00 -2.969654308555422784e+00 -3.833882231047261335e+00 -6.505949736627428814e-01 -2.992215250286946571e+00 -1.912323571936533462e+00 -3.223168679684429438e-01 2.798279512526825386e+00 1.520267364136567378e+00 -1.396837982328475336e+00 -9.980309466466403823e-01 -4.528909016561709855e+00 5.161461939842075797e-01 -7.921772882125552862e-01 -3.104223540822494520e+00 -6.003451894925833088e-01 -1.534536623910314201e+00 -6.779237764282615153e-01 -1.098644930753081672e+00 -2.354293584503818204e-01 -2.832358346622130707e+00 3.742320040429059635e-01 -2.205344360330841802e+00 1.699997988676376082e+00 1.271562670448706633e+00 -2.461917811426039826e+00 -3.923514940013304031e+00 7.420201211313507406e-01 -2.719045257036951657e-01 -2.547136987975546774e+00 -2.117670276676520746e+00 -2.840158968682905627e+00 1.180219141453953569e+00 -4.175779347791109153e+00 -1.014094773729699694e+00 -1.482547930649479984e+00 -4.878744582499798255e-01 1.224512371504428598e+00 5.566728865750244504e-01 -2.143450463182734911e+00 -6.609491245340026744e-01 -3.216854111898225010e+00 1.942145751212985827e-01 -4.003768612257994630e-01 -2.634762632680660133e+00 6.141633835729842783e-01 -2.351449520125115544e+00 -1.746838113791434610e+00 -1.675531718817304005e+00 2.035278205287001652e-01 2.753248246892256446e-01 -2.418099889956708992e+00 7.520818801954352872e-02 1.557886878745349479e+00 -2.567270360966364962e-01 -2.756502353334139510e+00 -3.430943942375463962e-01 -2.888595871067256127e+00 -2.187914098632360638e+00 -1.556794938280670948e+00
