4.879360691722436916e-01 1.099322469229142563e+00 2.406916915095001080e-02
4.600630920617764019e+00 -6.231538961036136470e+00 1.689139787017056138e+00
-1.702142455591487691e+00 5.342738115803430610e+00 -3.711355321567456844e+00
3.614309336997576949e+00 -1.780487631793472136e+00 4.514957854868799636e-01
-1.231733959416114077e+00 6.179204113491738148e+00 -9.387185794074230927e+00
-4.718604532540034424e-01 5.052897730112387187e+00 -3.151064086652417551e+00
4.016031470969391393e+00 -6.920663335785834036e+00 2.619087970030408830e+00
-4.057595016546802213e+00 3.846593905024922933e+00 1.281763709546356100e+00
1.536304548939260606e+00 -5.269869827449068289e+00 2.579753953868641592e+00
-2.104315831617756538e-01 2.758141579998540038e+00 -3.246326120841024121e+00
2.277204371818342121e+00 2.447182648517934211e+00 -1.958024461118929249e+00
-5.108271981383139426e+00 1.975103128591226831e+00 3.210476878362453323e+00
2.019392776521535815e+00 6.447791886368740011e-01 -3.570195647543705331e+00
-1.288048315933732479e-01 -4.041284882275203993e-01 8.393683694275037022e-01
-2.522041097552573774e+00 -7.560816341440090849e-01 -2.897729930739735282e-01
6.120849229585863860e+00 -1.449543273909695618e+00 -4.717719493608459658e+00
2.419469448721017102e+00 -4.822858004763890705e+00 -4.124502869854735909e-01
-1.131625458285298036e+00 -2.046463374048892447e+00 3.103653068407453475e+00
3.447062455716713103e+00 -4.132514405259073875e+00 1.579983878056799920e-02
-2.853358356102743798e+00 3.373813594932668192e+00 3.849310401771077750e-01
4.571341736683685875e-02 7.093254165832830749e-01 1.586107821115275929e+00
-2.618055736432478575e+00 7.929365828025231044e-01 2.084478636473113600e+00
2.756012367132652852e+00 -1.916401652600570937e+00 1.674822586519413292e+00
-1.235335770444781822e+00 3.398308481068795572e+00 -3.109639048064603450e+00
5.707452677232839333e-01 -3.396185473282737455e+00 3.235169881618853438e+00
-5.706640902897486267e-02 1.084686593495415741e+00 -1.426190667170808446e+00
-1.209256067133765988e+00 -5.573314192654306165e-01 6.799463406442620705e-01
-8.262744613563175466e-01 4.429729909866587434e+00 -2.582115366276179991e+00
3.598067652244689718e+00 -2.704486030691164444e+00 7.936578045702146200e-01
1.452701291062559852e+00 3.017476128547333047e+00 -4.197099926574851203e+00
-4.381173785947388488e+00 5.615329642099490037e+00 -5.587240933808683696e-01
1.750447276548504849e+00 2.026206007537877607e+00 -1.933467589719027657e+00
-2.283827710534988009e-01 2.182233540217994872e+00 -2.514209563112682844e+00
1.461628745515928918e+00 -4.906748579261679843e+00 8.286449759890061051e-01
2.759186101965001914e+00 -5.988989820410915321e+00 2.776333340713620146e+00
-1.495767328613140545e+00 1.765079290436791348e+00 8.200307147241382433e-01
1.583537011756481760e+00 -6.260105307104362637e+00 5.396548179926485833e-01
1.931460142868415053e+00 -5.332378994739914724e+00 4.803152364585331568e+00
-5.357321464939456268e-01 2.035943823268663522e+00 2.965694395284584339e-01
-1.181539314652966688e+00 -3.366139182167279809e-01 5.972847161799864357e-02
8.746627152136647876e-01 -2.746048303803919066e-01 1.019126996226339177e+00
-4.246630877643002289e-01 -1.390843852941408665e+00 1.481156342341781507e+00
3.415712205768089982e-01 -4.132829824919280526e+00 1.623682693320294135e+00
4.170354855626486668e+00 -3.066389893706233050e+00 -6.083050998065066273e-02
2.581571205974253047e+00 2.797323720005955749e+00 -3.866654836625063929e+00
-3.177156757945575283e+00 4.510162057012783166e+00 6.277639409179589514e-01
3.109977429561296136e-02 -3.967892657018876612e+00 3.398425432938644075e+00
-1.035606909551512356e+00 2.798042904202582726e+00 -2.905101035291944189e+00
3.449056661874203566e+00 -3.024286967846545160e+00 8.287681755479445744e-01
2.437090181616221152e+00 -4.000969961283885823e+00 1.684398266085179730e+00
-2.801846225276615865e+00 5.957230941598213869e-01 3.395320332345131309e+00
1.887237991831220429e-01 2.927293287095851237e+00 -3.050235439010720917e+00
-4.227118737109297975e+00 1.538290239099131540e+00 5.141432507963494380e+00
-1.449670276757140108e+00 -1.570673304225588263e+00 3.412970654530001813e+00
-3.851081310944432179e+00 1.389805267562463031e+00 1.475852792008966796e+00
-8.999552614491970193e-01 -8.537539803922785664e-01 1.194886046809121138e+00
1.871750675344566295e+00 -1.535678806943745034e+00 -4.724970086776407452e-02
6.763062839077459421e-01 3.836880895471304953e+00 -3.076141946564202367e+00
2.246830471117722550e-01 1.742959810512609620e+00 -1.581367054851869014e+00
-7.419963056710973781e+00 3.031800962876701089e+00 1.041829702048578943e+00
1.099174366404432446e+00 5.058060911218808187e+00 -2.760067052758783834e+00
-2.763725760039248858e+00 -8.274266691413943997e-01 4.591585361963264056e+00
-1.700358658765845909e-01 2.449995802989632931e+00 -4.259393620984758932e+00
-8.499331083596222136e-01 -1.020368869287007652e+00 1.765708913934617819e+00
