-7.141335523766493276e-01 7.298095426632134952e+00 -6.161861176834698917e+00 3.123365546573707796e+00 9.182349276816522021e+00 2.162069749412459441e+00 1.845170752530755243e+00 3.585573215447052764e+00 -2.693080566641629758e+00 -2.370658577076028006e+00 1.879475305966261889e+00 4.717043829113986675e+00 2.446345645277503866e+00 -3.531799698540178944e-01 1.618928450335498648e-01 1.283219145009713902e+00 5.292656939725427279e+00 -1.165927050888070360e-01 -3.425351696668792911e+00 4.342033300696892972e+00 3.170906371198148888e-01 3.298777434161376032e+00 3.180709860498040165e+00 4.304730924835976857e+00 -3.206090647549221018e+00 1.024776789362081164e+00 -1.067337962677678415e-01 4.248388452046722996e+00 -9.377058903391073397e-01 1.974467704943291047e+00 1.641138657411901125e+00 2.428679561711794666e+00 3.354573443150585810e+00 -3.155056871739076563e+00 4.711175939175622496e+00 -6.633668539516363039e-01 2.877528681484155193e+00 -6.297168600231699997e+00 2.998313825827859103e-01 -4.789829462508935626e-02 1.238275307131342373e-01 1.354026515986941570e+00 2.774200407702101856e+00 3.529363558421281244e+00 8.728041141476510223e-01 4.231481077369617871e+00 5.173139113738807637e+00 3.905090341298360190e+00 -3.521858693916067207e+00 5.122514352791093017e+00 -2.769429372727846506e+00 -1.289975985751768750e+00 5.256811461045664657e+00 3.738300295987958766e+00 -2.309431580892423452e-01 1.654183000455497488e-01 8.687269545705048612e-01 3.673804710952776720e+00 1.812907897374685939e+00 -2.921579874833248436e+00 4.666451676505241508e+00 -4.515855672300310708e+00 1.727212771341949171e+00 5.412637335339616218e-01
5.581371796759048154e-01 -5.605491102439384976e-01 -1.855675762339067836e+00 2.533494234480673235e+00 1.481819312152114820e+00 4.679481417683064137e+00 -7.163465474024241608e+00 4.516617455634149181e+00 -4.596440237075449353e+00 3.232444704249820333e+00 -2.913391623647703987e+00 -2.394580035413778507e+00 -3.319260957828517711e+00 -2.259546137507511820e-01 -4.392756608169366972e-01 -6.298507215459542508e+00 2.602866840817382954e+00 4.159718097837211026e+00 -2.845376853418958074e+00 9.795276738694699281e-01 1.446664554696002192e+00 -4.083289074987687117e-01 7.290382772304402348e-01 2.048331795433446789e+00 2.092199462558358647e+00 1.575744840970850769e+00 1.528125379235960035e-01 -2.200096375081942224e+00 -4.424703566695050050e+00 4.444249724432070892e+00 6.011093470562212104e+00 2.329149699719743616e+00 -7.252480747653683446e-01 -2.962467872881096920e+00 4.821597867542690707e+00 -5.352896410401165872e-02 -5.713270237295874132e+00 3.859218109400375796e-01 2.802826558128131973e-01 4.552180436973097821e-01 1.685969618421708227e-01 -8.680219486944009688e-01 -2.807354754752607651e+00 -2.956088869905049599e+00 -5.197758507891951929e+00 7.371822041677075221e-01 -6.557914185236690674e-01 -1.478115297503953318e+00 -1.597321594696336833e+00 2.917263026611098976e-04 2.967144195674704665e+00 3.989578074491577642e+00 -4.143269050368088458e+00 -2.462496850393267156e+00 -4.405792260662588333e+00 -3.612508949907621263e-03 2.656870295414228700e+00 -2.701118425536436440e+00 -1.435629519952094313e+00 -6.719079378974128325e+00 -2.470813758191401366e+00 2.248913402694714403e+00 3.930148618568512831e+00 3.144939234322310928e-02
